svm_type c_svc
kernel_type rbf
gamma 0.0012755102040816326
nr_class 7
total_sv 10
rho 0 0.14381235837936401 0 0.57134246826171875 0.62295621633529663 0 0.011841354397242576 0 0.16879151116445304 0.22084321640153173 0 -0.016647488884451056 0.26634046186287352 0.4078135227554735 -0.024943558959355638 0.15347965180293716 0.28383033665188923 0 0.13907857187998227 -0.24463838338851843 -0.2450058374628821
label 8 3 2 1 5 10 6
nr_sv 1 1 2 1 2 2 1
SV
6.6873895879438008 10 7.738521863106909 10 10 6.8146185231595346 176:0.32941176 177:0.87058824 178:0.2627451 204:0.7254902 205:0.99607843 206:0.44705882 232:0.62352941 233:0.99607843 234:0.28235294 260:0.59215686 261:0.99607843 262:0.44705882 288:0.23529412 289:0.99607843 290:0.63921569 305:0.23921569 306:0.4745098 307:0.4745098 316:0.14117647 317:0.94509804 318:0.89019608 319:0.066666667 331:0.12156863 332:0.52156863 333:0.94901961 334:0.99607843 335:0.99607843 345:0.77647059 346:0.99607843 347:0.25882353 357:0.011764706 358:0.14901961 359:0.87843137 360:0.99607843 361:0.99607843 362:0.99607843 363:0.81176471 373:0.77647059 374:0.88235294 375:0.054901961 384:0.074509804 385:0.79607843 386:0.99607843 387:0.99607843 388:0.99607843 389:0.99607843 390:0.85882353 391:0.070588235 401:0.77647059 402:0.99607843 403:0.2627451 411:0.29411765 412:0.86666667 413:0.99607843 414:0.99607843 415:0.45098039 416:0.20392157 417:0.20392157 418:0.15686275 429:0.77647059 430:0.99607843 431:0.2627451 437:0.035294118 438:0.49411765 439:0.98431373 440:0.99607843 441:0.85882353 442:0.30196078 443:0.0039215686 457:0.77647059 458:0.99607843 459:0.2627451 463:0.23137255 464:0.52156863 465:0.80392157 466:0.99607843 467:0.94117647 468:0.65098039 469:0.1372549 485:0.77647059 486:0.98039216 487:0.23137255 489:0.08627451 490:0.50588235 491:0.97647059 492:0.99607843 493:0.97254902 494:0.71372549 495:0.22352941 513:0.77647059 514:0.89803922 515:0.082352941 516:0.3254902 517:0.91372549 518:0.99607843 519:0.99607843 520:0.73333333 521:0.22745098 541:0.77647059 542:0.99607843 543:0.9254902 544:0.99215686 545:1 546:0.93333333 547:0.24313725 548:0.019607843 569:0.66666667 570:0.99607843 571:0.99607843 572:0.81960784 573:0.3254902 574:0.17254902 597:0.20392157 598:0.54901961 599:0.41568627 600:0.070588235 
-6.6873895879438008 8.6468546084615774 6.7109078749051996 7.7157715051287408 7.7460404441157777 6.3986404255992664 203:0.20392157 204:0.30196078 230:0.6627451 231:0.98039216 232:0.98431373 233:0.12156863 241:0.074509804 242:0.5254902 243:0.97254902 244:0.97254902 245:0.97254902 246:0.68235294 257:0.6627451 258:0.99215686 259:0.99215686 260:0.82352941 261:0.070588235 268:0.30588235 269:0.78431373 270:0.99215686 271:0.99215686 272:0.99215686 273:0.99215686 274:0.99215686 275:0.4627451 284:0.45490196 285:0.99215686 286:0.99215686 287:0.82352941 288:0.098039216 294:0.098039216 295:0.77647059 296:0.97254902 297:0.99215686 298:0.99215686 299:0.99215686 300:0.99215686 301:0.99215686 302:0.99215686 303:0.48235294 312:0.49019608 313:0.99215686 314:0.99215686 315:0.1254902 321:0.69019608 322:0.91764706 323:0.99215686 324:0.99215686 325:0.99215686 326:0.67843137 327:0.098039216 328:0.16862745 329:0.99215686 330:0.99215686 331:0.48235294 340:0.67058824 341:0.99215686 342:0.83529412 343:0.047058824 347:0.29803922 348:0.50196078 349:0.96470588 350:0.99215686 351:0.99215686 352:0.74117647 353:0.55294118 354:0.047058824 356:0.078431373 357:0.99215686 358:0.99215686 359:0.48235294 368:1 369:0.99215686 370:0.55686275 374:0.45882353 375:0.96862745 376:0.99215686 377:0.99215686 378:0.91372549 379:0.55294118 380:0.047058824 384:0.078431373 385:0.99215686 386:0.99215686 387:0.65098039 396:1 397:0.99215686 398:0.69019608 399:0.023529412 400:0.47843137 401:0.81960784 402:0.96862745 403:0.99215686 404:0.99215686 405:0.62352941 406:0.1372549 412:0.078431373 413:0.99215686 414:0.99215686 415:0.99215686 424:0.58823529 425:0.99215686 426:0.99215686 427:0.80784314 428:0.97254902 429:0.99215686 430:0.99215686 431:0.90588235 432:0.56470588 433:0.047058824 440:0.078431373 441:0.99215686 442:0.99215686 443:0.99215686 452:0.36470588 453:0.85490196 454:0.99215686 455:0.99215686 456:0.99215686 457:0.99215686 458:0.77647059 459:0.24705882 468:0.019607843 469:0.65882353 470:0.99215686 471:0.99215686 481:0.11764706 482:0.47843137 483:0.54901961 484:0.25490196 485:0.25490196 486:0.039215686 497:0.56078431 498:0.99215686 499:0.60784314 524:0.019607843 525:0.65098039 526:0.99215686 527:0.48235294 552:0.078431373 553:0.99215686 554:0.99215686 555:0.48235294 580:0.078431373 581:0.99215686 582:0.97647059 583:0.16078431 608:0.14509804 609:0.99215686 610:0.96862745 636:0.58823529 637:0.99215686 638:0.96862745 664:0.58823529 665:0.99215686 666:0.6627451 692:0.58823529 693:0.99215686 694:0.45882353 720:0.57647059 721:0.99215686 722:0.45882353 748:0.039215686 749:0.48235294 750:0.22352941 
-7.4069370801091159 -7.5166567170527863 4.6574788176320494 10 8.8053015315074212 5.1795035093137232 303:0.039215686 304:0.019607843 329:0.23921569 330:0.55294118 331:0.84313725 332:0.77647059 353:0.094117647 354:0.47058824 355:0.59215686 356:0.89411765 357:0.98431373 358:0.99607843 359:0.99607843 360:0.69019608 378:0.22352941 379:0.48627451 380:0.67058824 381:0.90980392 382:0.99607843 383:0.99607843 384:0.99607843 385:0.99607843 386:0.80392157 387:0.4745098 388:0.039215686 403:0.1254902 404:0.37254902 405:0.54901961 406:0.92941176 407:1 408:0.99607843 409:0.84313725 410:0.62352941 411:0.55686275 412:0.25882353 413:0.25882353 414:0.011764706 428:0.17647059 429:0.32941176 430:0.79215686 431:0.99607843 432:0.99607843 433:0.99607843 434:0.80392157 435:0.64705882 436:0.31764706 453:0.14901961 454:0.34117647 455:0.52941176 456:0.95686275 457:0.99607843 458:0.8745098 459:0.84705882 460:0.76470588 461:0.30196078 462:0.031372549 481:0.99607843 482:0.98823529 483:0.94509804 484:0.58823529 485:0.24705882 486:0.043137255 509:0.42745098 510:0.32156863 
-2.5930629198908841 -1.1301978914087907 1.9519762242907579 2.0382136484971833 6.1224586987619656 3.4525470381161507 303:0.019607843 304:0.011764706 327:0.10980392 328:0.3372549 329:0.41176471 330:0.68627451 331:0.82745098 332:0.61960784 333:0.10196078 352:0.23529412 353:0.30980392 354:0.63921569 355:0.98823529 356:0.99607843 357:0.99607843 358:0.99607843 359:0.99607843 360:0.99607843 361:0.61568627 377:0.22745098 378:0.43529412 379:0.63921569 380:0.98823529 381:0.99607843 382:0.99607843 383:0.99607843 384:0.99607843 385:0.91764706 386:0.8 387:0.76862745 388:0.62745098 389:0.41960784 401:0.02745098 402:0.20784314 403:0.5254902 404:0.76862745 405:0.99607843 406:0.99607843 407:0.99607843 408:0.99607843 409:0.99607843 410:0.93333333 411:0.82352941 412:0.51372549 413:0.078431373 414:0.019607843 427:0.074509804 428:0.31764706 429:0.79607843 430:0.99607843 431:0.99607843 432:0.99607843 433:0.99607843 434:0.99607843 435:0.93333333 436:0.8745098 437:0.60392157 438:0.20784314 454:0.30196078 455:0.89019608 456:0.99607843 457:0.99607843 458:0.99607843 459:0.99607843 460:0.97254902 461:0.92941176 462:0.51764706 463:0.10980392 482:0.99607843 483:0.99607843 484:0.99607843 485:0.99607843 486:0.98039216 487:0.70588235 488:0.18823529 510:0.41960784 511:0.99607843 512:0.64705882 513:0.28627451 538:0.011764706 539:0.035294118 540:0.0039215686 
-7.738521863106909 -6.7109078749051996 -6.6094550419228071 7.8441856077970202 9.4639231145354401 6.7946811255122679 208:0.1254902 209:0.14509804 210:0.14509804 211:0.14509804 212:0.54901961 213:0.85098039 214:0.85098039 215:0.85098039 216:0.85490196 217:0.44313725 218:0.12156863 235:0.24705882 236:0.90588235 237:0.98431373 238:0.98431373 239:0.99215686 240:0.98431373 241:0.98431373 242:0.98431373 243:0.98431373 244:0.99215686 245:0.98431373 246:0.90196078 247:0.24313725 262:0.71372549 263:0.86666667 264:0.98431373 265:0.98431373 266:0.98431373 267:0.99215686 268:0.98431373 269:0.98431373 270:0.98431373 271:0.98431373 272:0.99215686 273:0.98431373 274:0.98431373 275:0.55686275 288:0.43137255 289:0.99215686 290:1 291:0.99215686 292:0.99215686 293:0.99215686 294:0.78823529 300:0.28627451 301:0.99215686 302:0.99215686 303:0.99215686 304:0.28235294 315:0.082352941 316:0.74509804 317:0.98431373 318:0.99215686 319:0.98431373 320:0.98431373 321:0.7372549 322:0.11764706 328:0.28627451 329:0.98431373 330:0.98431373 331:0.98431373 332:0.68235294 341:0.043137255 342:0.14509804 343:0.77254902 344:0.98431373 345:0.98431373 346:0.99215686 347:0.98431373 348:0.8627451 349:0.078431373 356:0.89411765 357:0.98431373 358:0.98431373 359:0.98431373 360:0.98431373 369:0.58823529 370:0.98431373 371:0.98431373 372:0.98431373 373:0.98431373 374:0.99215686 375:0.98431373 376:0.5372549 384:0.99215686 385:0.98431373 386:0.98431373 387:0.98431373 388:0.67843137 397:0.99215686 398:0.98431373 399:0.98431373 400:0.98431373 401:0.98431373 402:0.99215686 403:0.57647059 404:0.039215686 412:0.99215686 413:0.98431373 414:0.98431373 415:0.98431373 416:0.27843137 425:0.79215686 426:0.99215686 427:0.99215686 428:0.99215686 429:0.99215686 430:0.91764706 431:0.30196078 439:0.71372549 440:1 441:0.99215686 442:0.99215686 443:0.99215686 444:0.28235294 453:0.12156863 454:0.41960784 455:0.41960784 456:0.6627451 457:0.98431373 458:0.87058824 459:0.24313725 465:0.082352941 466:0.56470588 467:0.86666667 468:0.99215686 469:0.98431373 470:0.90196078 471:0.41960784 472:0.11764706 484:0.42745098 485:0.98431373 486:0.99215686 487:0.50196078 488:0.12156863 493:0.24705882 494:0.98431373 495:0.98431373 496:0.99215686 497:0.98431373 498:0.74117647 512:0.24313725 513:0.8627451 514:0.99215686 515:0.98431373 516:0.90196078 517:0.42745098 518:0.12156863 519:0.1254902 520:0.42745098 521:0.90588235 522:0.98431373 523:0.98431373 524:0.99215686 525:0.98431373 526:0.1372549 541:0.2 542:0.99215686 543:0.98431373 544:0.98431373 545:0.98431373 546:0.78431373 547:0.79215686 548:0.98431373 549:0.98431373 550:0.98431373 551:0.98431373 552:0.99215686 553:0.57647059 554:0.039215686 571:0.41176471 572:0.95294118 573:0.99215686 574:0.99215686 575:1 576:0.99215686 577:0.99215686 578:0.86666667 579:0.70588235 600:0.44313725 601:0.98431373 602:0.98431373 603:0.99215686 604:0.98431373 605:0.90196078 606:0.23921569 628:0.019607843 629:0.1372549 630:0.1372549 631:0.64313725 632:0.1372549 633:0.11764706 
-4.4294109920753861 -3.4400220106006612 -5.9579523554056708 -5.2513111276556534 7.7805765707422614 6.9974673568568226 182:0.058823529 183:0.08627451 184:0.035294118 208:0.32941176 209:0.6627451 210:0.88235294 211:0.98823529 212:0.8 213:0.6627451 214:0.16078431 234:0.17647059 235:0.65882353 236:0.94901961 237:0.98823529 238:0.98823529 239:0.64313725 240:0.81960784 241:0.98823529 242:0.66666667 260:0.015686275 261:0.27058824 262:0.9254902 263:0.96862745 264:0.82745098 265:0.41568627 268:0.070588235 269:0.78039216 270:0.96078431 271:0.19215686 286:0.19607843 287:0.4745098 288:0.76470588 289:0.98823529 290:0.85098039 291:0.20784314 297:0.33333333 298:0.98823529 299:0.32941176 314:0.87843137 315:0.90588235 316:0.90588235 317:0.5254902 318:0.047058824 325:0.33333333 326:0.98823529 327:0.32941176 353:0.33333333 354:0.98823529 355:0.32941176 381:0.33333333 382:0.98823529 383:0.32941176 409:0.50588235 410:0.90980392 437:0.64313725 438:0.90588235 464:0.08627451 465:0.76470588 466:0.98431373 467:0.63137255 468:0.49803922 469:0.50196078 470:0.49803922 471:0.52941176 472:0.90980392 473:0.70196078 489:0.1254902 490:0.5254902 491:0.6627451 492:0.99215686 493:0.98823529 494:0.98823529 495:0.98823529 496:0.98823529 497:0.99215686 498:0.98823529 499:0.98823529 500:0.9254902 501:0.25882353 515:0.070588235 516:0.55294118 517:0.90980392 518:0.98823529 519:0.98823529 520:0.99215686 521:0.98823529 522:0.98823529 523:0.98823529 524:0.98823529 525:0.99215686 526:0.98823529 527:0.95686275 528:0.43529412 538:0.2745098 539:0.58039216 540:0.37647059 541:0.44705882 542:0.75294118 543:1 544:0.99215686 545:0.98039216 546:0.82745098 547:0.65490196 548:0.41960784 549:0.41568627 550:0.035294118 552:0.17647059 566:0.11372549 567:0.65882353 568:0.82352941 569:0.98823529 570:0.98823529 571:0.99215686 572:0.74117647 573:0.25882353 596:0.043137255 597:0.082352941 598:0.082352941 599:0.082352941 600:0.019607843 
-5.5705890079246139 -4.2757494945280801 -6.080261293091513 -2.5928744801413668 8.4599556974788879 3.0025326431431782 178:0.08627451 179:0.63921569 180:0.63529412 181:0.63529412 182:0.2 204:0.078431373 205:0.2745098 206:0.6 207:1 208:0.99215686 209:0.99215686 210:0.89411765 211:0.066666667 231:0.066666667 232:0.74117647 233:0.99215686 234:0.99215686 235:0.8 236:0.69803922 237:0.99215686 238:0.99215686 239:0.25490196 258:0.08627451 259:0.92156863 260:0.99215686 261:0.99215686 262:0.37647059 263:0.043137255 264:0.019607843 265:0.74901961 266:0.99215686 267:0.5372549 286:0.75294118 287:0.98039216 288:0.57647059 289:0.082352941 293:0.68627451 294:0.99607843 295:0.99607843 314:0.5254902 315:0.6627451 321:0.2745098 322:0.99215686 323:0.90980392 342:0.1254902 349:0.2745098 350:0.99215686 351:0.5372549 377:0.2745098 378:0.99215686 379:0.5372549 385:0.40784314 386:0.81568627 387:0.81568627 388:0.81568627 389:0.23921569 405:0.2745098 406:0.99215686 407:0.5372549 410:0.33333333 411:0.61960784 412:0.90588235 413:0.99607843 414:0.99215686 415:0.99215686 416:0.99215686 417:0.74509804 433:0.52156863 434:0.99607843 435:0.17254902 436:0.13333333 437:0.62745098 438:0.99607843 439:0.99607843 440:0.95686275 441:0.90980392 442:0.61568627 443:0.60392157 444:0.99607843 445:0.50196078 460:0.035294118 461:0.77254902 462:0.99215686 463:0.99215686 464:0.99607843 465:0.99215686 466:0.94509804 467:0.64705882 468:0.19607843 471:0.35686275 472:0.99215686 473:0.090196078 488:0.51372549 489:0.99215686 490:0.99215686 491:0.99215686 492:0.80784314 493:0.27058824 494:0.19607843 498:0.050980392 499:0.8 500:0.60392157 501:0.023529412 514:0.16862745 515:0.40784314 516:0.92941176 517:0.99215686 518:0.85882353 519:0.63137255 520:0.082352941 526:0.11764706 527:0.63137255 528:0.11372549 541:0.16862745 542:0.90588235 543:0.99607843 544:0.99215686 545:0.6627451 546:0.1372549 567:0.058823529 568:0.54509804 569:0.99607843 570:0.99607843 571:0.61960784 594:0.058823529 595:0.8627451 596:0.99215686 597:0.67843137 598:0.36078431 622:0.30196078 623:0.94509804 624:0.39215686 625:0.050980392 650:0.019607843 651:0.14509804 
-3.8089662427770392 -4.900828432951374 -8.3387349467246263 -4.0407724786895107 -8.03065912691142 4.3005111438613772 235:0.12156863 236:0.30980392 237:0.3372549 238:0.68627451 239:0.3372549 240:0.070588235 261:0.10980392 262:0.56470588 263:0.94509804 264:0.99607843 265:0.99215686 266:0.99215686 267:0.99215686 268:0.93333333 269:0.26666667 288:0.35686275 289:0.92156863 290:0.99215686 291:0.99215686 292:0.75686275 293:0.31372549 294:0.60784314 295:0.81568627 296:0.99215686 297:0.94117647 298:0.26666667 315:0.054901961 316:0.87843137 317:0.99607843 318:0.99607843 319:0.81568627 323:0.15686275 324:0.99607843 325:1 326:0.61960784 343:0.58431373 344:0.99215686 345:0.99215686 346:0.99215686 347:0.7254902 348:0.031372549 351:0.33333333 352:0.99215686 353:0.99607843 354:0.55686275 371:0.75686275 372:0.99215686 373:0.99215686 374:0.99215686 375:0.99215686 376:0.38431373 379:0.65098039 380:0.99215686 381:0.56862745 382:0.047058824 399:0.019607843 400:0.074509804 401:0.65098039 402:0.99215686 403:0.99215686 404:0.85882353 405:0.71372549 406:0.91764706 407:0.98431373 408:0.7254902 409:0.031372549 429:0.070588235 430:0.93333333 431:0.99215686 432:0.99607843 433:0.99215686 434:0.99215686 435:0.92941176 436:0.14117647 458:0.45098039 459:0.90588235 460:1 461:0.99607843 462:0.99607843 463:0.99607843 464:0.84705882 465:0.5254902 466:0.035294118 486:0.023529412 487:0.094117647 488:0.78823529 489:0.74901961 490:0.52941176 491:0.9254902 492:0.99215686 493:0.99607843 494:0.68627451 495:0.34509804 496:0.0078431373 516:0.070588235 517:0.047058824 519:0.16470588 520:0.59607843 521:0.8745098 522:0.99215686 523:0.99215686 524:0.65098039 525:0.18823529 549:0.1372549 550:0.63137255 551:0.88627451 552:0.99215686 553:0.96078431 554:0.45098039 555:0.082352941 579:0.070588235 580:0.49411765 581:0.99215686 582:0.99607843 583:0.85490196 584:0.11764706 609:0.14901961 610:0.6745098 611:0.99607843 612:0.99607843 613:0.72941176 614:0.054901961 638:0.035294118 639:0.18039216 640:0.64705882 641:0.95686275 642:0.8745098 669:0.16470588 670:0.30588235 
-6.1910337572229608 -2.8452120111644033 -6.5890252835447605 -5.4231506358459294 -8.2098731413097283 3.7317707029475717 180:0.031372549 181:0.28235294 182:0.29411765 183:0.035294118 208:0.49411765 209:0.95294118 210:0.94117647 211:0.68627451 235:0.6 236:0.99215686 237:0.99607843 238:0.99607843 239:0.95686275 240:0.062745098 262:0.18039216 263:0.91764706 264:0.99607843 265:0.89411765 266:0.8745098 267:0.99215686 268:0.53333333 275:0.047058824 276:0.30588235 277:0.81960784 278:0.89019608 279:0.44313725 290:0.6 291:0.99607843 292:0.91372549 293:0.21176471 294:0.42745098 295:1 296:0.76470588 302:0.050980392 303:0.89411765 304:1 305:0.99607843 306:1 307:1 317:0.17647059 318:0.94117647 319:0.99607843 320:0.50196078 322:0.54117647 323:0.99607843 324:0.69019608 328:0.21176471 329:0.51372549 330:0.97647059 331:0.99607843 332:0.99607843 333:0.99607843 334:0.91372549 335:0.42352941 345:0.59607843 346:0.99607843 347:0.73333333 348:0.043137255 350:0.69803922 351:0.99607843 352:0.57254902 355:0.39215686 356:0.94509804 357:0.99607843 358:0.99607843 359:0.99607843 360:0.99607843 361:0.5372549 362:0.098039216 372:0.14117647 373:0.91764706 374:0.99607843 375:0.55686275 378:0.69803922 379:0.98431373 380:0.6 382:0.4627451 383:0.94901961 384:0.99607843 385:0.99607843 386:0.99607843 387:0.81568627 388:0.25882353 400:0.21960784 401:0.99607843 402:0.89019608 403:0.031372549 406:0.6627451 407:0.99607843 408:0.78431373 409:0.63529412 410:0.98039216 411:0.99607843 412:0.99607843 413:0.95686275 414:0.59607843 415:0.031372549 428:0.5372549 429:0.99607843 430:0.65098039 433:0.011764706 434:0.82352941 435:0.99607843 436:0.99607843 437:0.99607843 438:0.99607843 439:0.99607843 440:0.94901961 441:0.25098039 456:0.78823529 457:0.99607843 458:0.52156863 461:0.1254902 462:0.98431373 463:0.99607843 464:0.99607843 465:0.99607843 466:0.99607843 467:0.82745098 468:0.23137255 484:0.78039216 485:0.99607843 486:0.98431373 487:0.74901961 488:0.82352941 489:0.45490196 490:0.90588235 491:0.99607843 492:0.99607843 493:0.94509804 494:0.35294118 495:0.02745098 512:0.37254902 513:0.99607843 514:0.78431373 515:0.15686275 516:0.16862745 517:0.88235294 518:0.99607843 519:0.99607843 520:0.99607843 521:0.38823529 540:0.14509804 541:0.98039216 542:0.99607843 543:0.77647059 544:0.2745098 545:0.94901961 546:0.99607843 547:0.98823529 548:0.58823529 549:0.011764706 569:0.82745098 570:0.89803922 571:0.96470588 572:0.99607843 573:0.99607843 574:0.99607843 575:0.67058824 576:0.062745098 597:0.59215686 598:0.88235294 599:0.8745098 600:0.99607843 601:1 602:0.90980392 603:0.098039216 625:0.023529412 626:0.40784314 627:0.99215686 628:0.99607843 629:0.63529412 630:0.14901961 655:0.082352941 656:0.082352941 657:0.019607843 
-6.8146185231595346 -6.3986404255992664 -8.6320505474298734 -6.7946811255122679 -10 -8.0322818468089476 152:0.047058824 153:0.36078431 154:0.58823529 155:0.91764706 156:1 157:0.54509804 158:0.011764706 179:0.023529412 180:0.52156863 181:0.99215686 182:0.99215686 183:0.99215686 184:0.99215686 185:0.99215686 186:0.20784314 206:0.043137255 207:0.69411765 208:0.99215686 209:0.8745098 210:0.68235294 211:0.96470588 212:0.99215686 213:0.99215686 214:0.85490196 233:0.078431373 234:0.80784314 235:0.99215686 236:0.91372549 237:0.10980392 239:0.49803922 240:0.99215686 241:0.99215686 242:0.87058824 261:0.51764706 262:0.99215686 263:0.51764706 264:0.058823529 267:0.19215686 268:0.98431373 269:0.99215686 270:0.98431373 271:0.2627451 289:0.28235294 290:0.30588235 291:0.039215686 296:0.57647059 297:0.99215686 298:0.99215686 299:0.28235294 324:0.35686275 325:0.99215686 326:0.99215686 327:0.78431373 328:0.47058824 329:0.19607843 330:0.035294118 343:0.1372549 344:0.24705882 345:0.22352941 352:0.4745098 353:0.99215686 354:0.99215686 355:0.99215686 356:0.99215686 357:0.99215686 358:0.65490196 359:0.090196078 371:0.55686275 372:0.99215686 373:0.93333333 374:0.1254902 380:0.33333333 381:0.99215686 382:0.99215686 383:0.99215686 384:0.97647059 385:0.99215686 386:0.99215686 387:0.70588235 399:0.95686275 400:0.99215686 401:0.89019608 408:0.16470588 409:0.99215686 410:0.99215686 411:0.99215686 412:0.59607843 413:0.99215686 414:0.99215686 415:0.90588235 416:0.36470588 426:0.29411765 427:0.98823529 428:0.99215686 429:0.93333333 430:0.11764706 436:0.16470588 437:0.99215686 438:0.99215686 439:0.99215686 440:0.2 441:0.7372549 442:0.99215686 443:0.99215686 444:0.58431373 454:0.6 455:0.99215686 456:0.99215686 457:0.65882353 458:0.0078431373 464:0.33333333 465:0.99215686 466:0.99215686 467:0.99215686 468:0.64313725 469:0.98823529 470:0.99215686 471:0.86666667 472:0.08627451 481:0.066666667 482:0.85098039 483:0.99215686 484:0.99215686 485:0.48627451 492:0.10980392 493:0.90980392 494:0.99215686 495:0.99215686 496:0.99215686 497:0.99215686 498:0.98039216 499:0.50196078 509:0.18431373 510:0.99215686 511:0.99215686 512:0.99215686 513:0.27058824 521:0.65882353 522:0.98823529 523:0.99215686 524:0.99215686 525:0.99215686 526:0.68627451 537:0.18431373 538:0.99215686 539:0.99215686 540:0.99215686 541:0.078431373 550:0.48627451 551:0.68627451 552:0.68627451 553:0.58039216 554:0.043137255 565:0.18431373 566:0.99215686 567:0.99215686 568:0.83529412 569:0.043137255 593:0.062745098 594:0.84313725 595:0.99215686 596:0.66666667 621:0.50588235 622:0.96470588 623:0.99215686 624:0.66666667 649:0.33333333 650:0.99215686 651:0.99215686 652:0.66666667 677:0.18431373 678:0.99215686 679:0.99215686 680:0.66666667 
